<?xml version="1.0"?>
<opencv_storage>
<stage15>
  <maxWeakCount>10</maxWeakCount>
  <stageThreshold>-1.6688299179077148e+00</stageThreshold>
  <weakClassifiers>
    <_>
      <internalNodes>
        0 -1 97467 1.4127336442470551e-02</internalNodes>
      <leafValues>
        -7.0795303583145142e-01 6.1568349599838257e-01</leafValues></_>
    <_>
      <internalNodes>
        0 -1 32232 -5.9195518493652344e-02</internalNodes>
      <leafValues>
        5.5475485324859619e-01 -5.4253977537155151e-01</leafValues></_>
    <_>
      <internalNodes>
        0 -1 93435 -2.4333292458322830e-05</internalNodes>
      <leafValues>
        -6.4258265495300293e-01 4.1762638092041016e-01</leafValues></_>
    <_>
      <internalNodes>
        0 -1 22169 -9.6316100098192692e-04</internalNodes>
      <leafValues>
        3.4883132576942444e-01 -7.7922075986862183e-01</leafValues></_>
    <_>
      <internalNodes>
        0 -1 28578 4.6059593558311462e-02</internalNodes>
      <leafValues>
        -5.3845727443695068e-01 4.3376049399375916e-01</leafValues></_>
    <_>
      <internalNodes>
        0 -1 3243 1.0098001803271472e-04</internalNodes>
      <leafValues>
        4.3653711676597595e-01 -5.7466894388198853e-01</leafValues></_>
    <_>
      <internalNodes>
        0 -1 33295 -9.5376342535018921e-02</internalNodes>
      <leafValues>
        8.5236817598342896e-01 -3.8548192381858826e-01</leafValues></_>
    <_>
      <internalNodes>
        0 -1 33296 2.2304525598883629e-02</internalNodes>
      <leafValues>
        -3.2857540249824524e-01 7.8905224800109863e-01</leafValues></_>
    <_>
      <internalNodes>
        0 -1 91082 -7.1398345753550529e-03</internalNodes>
      <leafValues>
        3.8628333806991577e-01 -6.7906922101974487e-01</leafValues></_>
    <_>
      <internalNodes>
        0 -1 5181 3.6633056879509240e-05</internalNodes>
      <leafValues>
        -6.6710942983627319e-01 3.6344426870346069e-01</leafValues></_></weakClassifiers></stage15>
</opencv_storage>
