<?xml version="1.0"?>
<opencv_storage>
<stage16>
  <maxWeakCount>11</maxWeakCount>
  <stageThreshold>-1.5959285497665405e+00</stageThreshold>
  <weakClassifiers>
    <_>
      <internalNodes>
        0 -1 24024 2.3513021878898144e-03</internalNodes>
      <leafValues>
        -3.9843750000000000e-01 7.3770493268966675e-01</leafValues></_>
    <_>
      <internalNodes>
        0 -1 110747 3.1592801678925753e-04</internalNodes>
      <leafValues>
        3.8895300030708313e-01 -8.3118414878845215e-01</leafValues></_>
    <_>
      <internalNodes>
        0 -1 110747 -2.3143884027376771e-04</internalNodes>
      <leafValues>
        -8.5989570617675781e-01 3.1632634997367859e-01</leafValues></_>
    <_>
      <internalNodes>
        0 -1 34827 6.2859028577804565e-02</internalNodes>
      <leafValues>
        -5.4251670837402344e-01 4.5895668864250183e-01</leafValues></_>
    <_>
      <internalNodes>
        0 -1 96140 -7.1680024266242981e-02</internalNodes>
      <leafValues>
        5.4934483766555786e-01 -4.9700477719306946e-01</leafValues></_>
    <_>
      <internalNodes>
        0 -1 4310 -1.9257212989032269e-03</internalNodes>
      <leafValues>
        2.8055956959724426e-01 -8.7403851747512817e-01</leafValues></_>
    <_>
      <internalNodes>
        0 -1 17 4.7173901111818850e-04</internalNodes>
      <leafValues>
        2.2480159997940063e-01 -8.5775744915008545e-01</leafValues></_>
    <_>
      <internalNodes>
        0 -1 58418 -6.4266216941177845e-03</internalNodes>
      <leafValues>
        -8.5362410545349121e-01 2.0122824609279633e-01</leafValues></_>
    <_>
      <internalNodes>
        0 -1 24550 -3.3243570214835927e-05</internalNodes>
      <leafValues>
        2.4345532059669495e-01 -7.7634119987487793e-01</leafValues></_>
    <_>
      <internalNodes>
        0 -1 90769 -1.4088066294789314e-02</internalNodes>
      <leafValues>
        2.5964820384979248e-01 -7.3548585176467896e-01</leafValues></_>
    <_>
      <internalNodes>
        0 -1 15894 -1.3753363862633705e-02</internalNodes>
      <leafValues>
        -9.0017926692962646e-01 2.0320123434066772e-01</leafValues></_></weakClassifiers></stage16>
</opencv_storage>
