<?xml version="1.0"?>
<opencv_storage>
<cascade>
  <stageType>BOOST</stageType>
  <featureType>HAAR</featureType>
  <height>10</height>
  <width>40</width>
  <stageParams>
    <boostType>GAB</boostType>
    <minHitRate>9.9989998340606689e-01</minHitRate>
    <maxFalseAlarm>5.0000000000000000e-01</maxFalseAlarm>
    <weightTrimRate>9.4999999999999996e-01</weightTrimRate>
    <maxDepth>1</maxDepth>
    <maxWeakCount>100</maxWeakCount></stageParams>
  <featureParams>
    <maxCatCount>0</maxCatCount>
    <featSize>1</featSize>
    <mode>ALL</mode></featureParams>
  <stageNum>18</stageNum>
  <stages>
    <!-- stage 0 -->
    <_>
      <maxWeakCount>4</maxWeakCount>
      <stageThreshold>-1.7677159309387207e+00</stageThreshold>
      <weakClassifiers>
        <_>
          <internalNodes>
            0 -1 127 3.2630987465381622e-02</internalNodes>
          <leafValues>
            -9.1186439990997314e-01 9.4127380847930908e-01</leafValues></_>
        <_>
          <internalNodes>
            0 -1 22 2.9203001409769058e-02</internalNodes>
          <leafValues>
            -8.3362746238708496e-01 8.7752127647399902e-01</leafValues></_>
        <_>
          <internalNodes>
            0 -1 118 1.0213598608970642e-01</internalNodes>
          <leafValues>
            -8.2998907566070557e-01 8.8457900285720825e-01</leafValues></_>
        <_>
          <internalNodes>
            0 -1 123 1.7658771947026253e-02</internalNodes>
          <leafValues>
            -6.5814667940139771e-01 8.0776506662368774e-01</leafValues></_></weakClassifiers></_>
    <!-- stage 1 -->
    <_>
      <maxWeakCount>4</maxWeakCount>
      <stageThreshold>-1.3625718355178833e+00</stageThreshold>
      <weakClassifiers>
        <_>
          <internalNodes>
            0 -1 126 2.5753127411007881e-02</internalNodes>
          <leafValues>
            -8.4324324131011963e-01 8.5852092504501343e-01</leafValues></_>
        <_>
          <internalNodes>
            0 -1 121 1.5919278562068939e-01</internalNodes>
          <leafValues>
            -7.6956474781036377e-01 7.9512608051300049e-01</leafValues></_>
        <_>
          <internalNodes>
            0 -1 38 3.4657455980777740e-02</internalNodes>
          <leafValues>
            -6.5285396575927734e-01 9.4485044479370117e-01</leafValues></_>
        <_>
          <internalNodes>
            0 -1 25 -3.2931663095951080e-02</internalNodes>
          <leafValues>
            9.0309011936187744e-01 -5.8081942796707153e-01</leafValues></_></weakClassifiers></_>
    <!-- stage 2 -->
    <_>
      <maxWeakCount>6</maxWeakCount>
      <stageThreshold>-1.3603397607803345e+00</stageThreshold>
      <weakClassifiers>
        <_>
          <internalNodes>
            0 -1 100 -3.9149247109889984e-02</internalNodes>
          <leafValues>
            8.9830505847930908e-01 -7.4313408136367798e-01</leafValues></_>
        <_>
          <internalNodes>
            0 -1 13 3.2262206077575684e-02</internalNodes>
          <leafValues>
            -7.4505734443664551e-01 8.3365857601165771e-01</leafValues></_>
        <_>
          <internalNodes>
            0 -1 28 -1.5679856762290001e-02</internalNodes>
          <leafValues>
            6.6934478282928467e-01 -7.6359975337982178e-01</leafValues></_>
        <_>
          <internalNodes>
            0 -1 90 -2.8715949505567551e-02</internalNodes>
          <leafValues>
            5.7317858934402466e-01 -8.8041996955871582e-01</leafValues></_>
        <_>
          <internalNodes>
            0 -1 67 7.6848059892654419e-02</internalNodes>
          <leafValues>
            -4.9378511309623718e-01 8.8776636123657227e-01</leafValues></_>
        <_>
          <internalNodes>
            0 -1 132 -2.9928928241133690e-02</internalNodes>
          <leafValues>
            8.3271199464797974e-01 -5.7427948713302612e-01</leafValues></_></weakClassifiers></_>
    <!-- stage 3 -->
    <_>
      <maxWeakCount>7</maxWeakCount>
      <stageThreshold>-1.6439580917358398e+00</stageThreshold>
      <weakClassifiers>
        <_>
          <internalNodes>
            0 -1 96 6.8431377410888672e-02</internalNodes>
          <leafValues>
            -8.3333331346511841e-01 7.9519009590148926e-01</leafValues></_>
        <_>
          <internalNodes>
            0 -1 120 2.6366256177425385e-02</internalNodes>
          <leafValues>
            -6.5481138229370117e-01 7.8470313549041748e-01</leafValues></_>
        <_>
          <internalNodes>
            0 -1 35 -2.4029277265071869e-03</internalNodes>
          <leafValues>
            7.5500708818435669e-01 -6.5502625703811646e-01</leafValues></_>
        <_>
          <internalNodes>
            0 -1 75 4.5427016913890839e-02</internalNodes>
          <leafValues>
            -5.0230813026428223e-01 7.8816199302673340e-01</leafValues></_>
        <_>
          <internalNodes>
            0 -1 15 2.5378368794918060e-02</internalNodes>
          <leafValues>
            -4.0145796537399292e-01 8.5337990522384644e-01</leafValues></_>
        <_>
          <internalNodes>
            0 -1 16 8.8555216789245605e-02</internalNodes>
          <leafValues>
            -4.1341194510459900e-01 8.6584454774856567e-01</leafValues></_>
        <_>
          <internalNodes>
            0 -1 114 1.1108438670635223e-01</internalNodes>
          <leafValues>
            -7.6659059524536133e-01 5.2592068910598755e-01</leafValues></_></weakClassifiers></_>
    <!-- stage 4 -->
    <_>
      <maxWeakCount>7</maxWeakCount>
      <stageThreshold>-1.1538870334625244e+00</stageThreshold>
      <weakClassifiers>
        <_>
          <internalNodes>
            0 -1 34 1.8626166507601738e-02</internalNodes>
          <leafValues>
            -6.7964601516723633e-01 7.9740679264068604e-01</leafValues></_>
        <_>
          <internalNodes>
            0 -1 56 3.6930054426193237e-02</internalNodes>
          <leafValues>
            -5.6069326400756836e-01 7.8502660989761353e-01</leafValues></_>
        <_>
          <internalNodes>
            0 -1 133 1.9567749404814094e-05</internalNodes>
          <leafValues>
            5.4771381616592407e-01 -8.2505953311920166e-01</leafValues></_>
        <_>
          <internalNodes>
            0 -1 133 -3.8333655538735911e-05</internalNodes>
          <leafValues>
            -9.7257435321807861e-01 4.0217125415802002e-01</leafValues></_>
        <_>
          <internalNodes>
            0 -1 102 -7.5685888528823853e-02</internalNodes>
          <leafValues>
            7.4670338630676270e-01 -5.5921417474746704e-01</leafValues></_>
        <_>
          <internalNodes>
            0 -1 97 5.1638264267239720e-05</internalNodes>
          <leafValues>
            4.1873797774314880e-01 -8.9888787269592285e-01</leafValues></_>
        <_>
          <internalNodes>
            0 -1 18 1.0846815072000027e-02</internalNodes>
          <leafValues>
            -5.6782400608062744e-01 6.4981663227081299e-01</leafValues></_></weakClassifiers></_>
    <!-- stage 5 -->
    <_>
      <maxWeakCount>5</maxWeakCount>
      <stageThreshold>-1.1930354833602905e+00</stageThreshold>
      <weakClassifiers>
        <_>
          <internalNodes>
            0 -1 103 -3.3373668789863586e-02</internalNodes>
          <leafValues>
            8.1308412551879883e-01 -7.0448547601699829e-01</leafValues></_>
        <_>
          <internalNodes>
            0 -1 113 1.1718973517417908e-02</internalNodes>
          <leafValues>
            -6.9777101278305054e-01 6.7366039752960205e-01</leafValues></_>
        <_>
          <internalNodes>
            0 -1 20 -7.1823224425315857e-03</internalNodes>
          <leafValues>
            4.9997055530548096e-01 -8.8087630271911621e-01</leafValues></_>
        <_>
          <internalNodes>
            0 -1 47 1.4135012030601501e-01</internalNodes>
          <leafValues>
            -6.1210244894027710e-01 6.3346165418624878e-01</leafValues></_>
        <_>
          <internalNodes>
            0 -1 46 -1.4263613149523735e-02</internalNodes>
          <leafValues>
            4.5663565397262573e-01 -8.8408583402633667e-01</leafValues></_></weakClassifiers></_>
    <!-- stage 6 -->
    <_>
      <maxWeakCount>9</maxWeakCount>
      <stageThreshold>-2.0138418674468994e+00</stageThreshold>
      <weakClassifiers>
        <_>
          <internalNodes>
            0 -1 110 2.0549234002828598e-02</internalNodes>
          <leafValues>
            -6.7985612154006958e-01 7.8680610656738281e-01</leafValues></_>
        <_>
          <internalNodes>
            0 -1 101 6.3974082469940186e-02</internalNodes>
          <leafValues>
            -7.1560776233673096e-01 5.9892278909683228e-01</leafValues></_>
        <_>
          <internalNodes>
            0 -1 17 2.0720386877655983e-02</internalNodes>
          <leafValues>
            -5.0197207927703857e-01 8.4245240688323975e-01</leafValues></_>
        <_>
          <internalNodes>
            0 -1 129 -3.3091738820075989e-02</internalNodes>
          <leafValues>
            5.6977593898773193e-01 -7.6010078191757202e-01</leafValues></_>
        <_>
          <internalNodes>
            0 -1 9 2.2798124700784683e-02</internalNodes>
          <leafValues>
            -8.0468422174453735e-01 4.6962106227874756e-01</leafValues></_>
        <_>
          <internalNodes>
            0 -1 82 4.4146746397018433e-02</internalNodes>
          <leafValues>
            -4.3618991971015930e-01 8.9448696374893188e-01</leafValues></_>
        <_>
          <internalNodes>
            0 -1 89 -7.4844747781753540e-02</internalNodes>
          <leafValues>
            5.2290874719619751e-01 -6.8239921331405640e-01</leafValues></_>
        <_>
          <internalNodes>
            0 -1 86 5.9540044516324997e-02</internalNodes>
          <leafValues>
            -3.8457751274108887e-01 8.9952892065048218e-01</leafValues></_>
        <_>
          <internalNodes>
            0 -1 73 7.4810093792621046e-05</internalNodes>
          <leafValues>
            4.1636109352111816e-01 -9.2474335432052612e-01</leafValues></_></weakClassifiers></_>
    <!-- stage 7 -->
    <_>
      <maxWeakCount>8</maxWeakCount>
      <stageThreshold>-1.8260498046875000e+00</stageThreshold>
      <weakClassifiers>
        <_>
          <internalNodes>
            0 -1 133 2.9141439881641418e-05</internalNodes>
          <leafValues>
            6.7632150650024414e-01 -7.9904305934906006e-01</leafValues></_>
        <_>
          <internalNodes>
            0 -1 125 -1.1945071630179882e-02</internalNodes>
          <leafValues>
            5.3886866569519043e-01 -7.9140460491180420e-01</leafValues></_>
        <_>
          <internalNodes>
            0 -1 26 3.1899452209472656e-02</internalNodes>
          <leafValues>
            -4.1665267944335938e-01 8.8228821754455566e-01</leafValues></_>
        <_>
          <internalNodes>
            0 -1 108 3.0332554131746292e-02</internalNodes>
          <leafValues>
            -7.4084103107452393e-01 5.0902760028839111e-01</leafValues></_>
        <_>
          <internalNodes>
            0 -1 84 6.5123364329338074e-02</internalNodes>
          <leafValues>
            -7.5934839248657227e-01 5.2983510494232178e-01</leafValues></_>
        <_>
          <internalNodes>
            0 -1 63 2.8945818543434143e-02</internalNodes>
          <leafValues>
            -4.9814945459365845e-01 6.3956612348556519e-01</leafValues></_>
        <_>
          <internalNodes>
            0 -1 83 1.9619326849351637e-05</internalNodes>
          <leafValues>
            3.3516806364059448e-01 -8.7481677532196045e-01</leafValues></_>
        <_>
          <internalNodes>
            0 -1 83 -1.7442242096876726e-05</internalNodes>
          <leafValues>
            -8.2991302013397217e-01 3.6885681748390198e-01</leafValues></_></weakClassifiers></_>
    <!-- stage 8 -->
    <_>
      <maxWeakCount>7</maxWeakCount>
      <stageThreshold>-2.0112731456756592e+00</stageThreshold>
      <weakClassifiers>
        <_>
          <internalNodes>
            0 -1 79 3.3577263355255127e-02</internalNodes>
          <leafValues>
            -4.7091412544250488e-01 8.7279480695724487e-01</leafValues></_>
        <_>
          <internalNodes>
            0 -1 133 -2.9522623663069680e-05</internalNodes>
          <leafValues>
            -9.3193167448043823e-01 5.3091090917587280e-01</leafValues></_>
        <_>
          <internalNodes>
            0 -1 31 -2.1673431620001793e-02</internalNodes>
          <leafValues>
            7.4026262760162354e-01 -5.3935843706130981e-01</leafValues></_>
        <_>
          <internalNodes>
            0 -1 121 2.2492310404777527e-01</internalNodes>
          <leafValues>
            -5.9763067960739136e-01 6.1766076087951660e-01</leafValues></_>
        <_>
          <internalNodes>
            0 -1 27 1.7062412574887276e-02</internalNodes>
          <leafValues>
            -7.2154414653778076e-01 4.3860608339309692e-01</leafValues></_>
        <_>
          <internalNodes>
            0 -1 88 1.7493739724159241e-02</internalNodes>
          <leafValues>
            -3.9547619223594666e-01 7.9564940929412842e-01</leafValues></_>
        <_>
          <internalNodes>
            0 -1 69 -1.0680295526981354e-03</internalNodes>
          <leafValues>
            -8.9819598197937012e-01 3.6596092581748962e-01</leafValues></_></weakClassifiers></_>
    <!-- stage 9 -->
    <_>
      <maxWeakCount>11</maxWeakCount>
      <stageThreshold>-2.0827813148498535e+00</stageThreshold>
      <weakClassifiers>
        <_>
          <internalNodes>
            0 -1 59 6.0970906168222427e-02</internalNodes>
          <leafValues>
            -4.8367029428482056e-01 7.8806227445602417e-01</leafValues></_>
        <_>
          <internalNodes>
            0 -1 121 2.0315739512443542e-01</internalNodes>
          <leafValues>
            -6.4666503667831421e-01 6.6060942411422729e-01</leafValues></_>
        <_>
          <internalNodes>
            0 -1 30 -1.1509281583130360e-02</internalNodes>
          <leafValues>
            6.5468502044677734e-01 -4.9919825792312622e-01</leafValues></_>
        <_>
          <internalNodes>
            0 -1 124 4.9149192869663239e-02</internalNodes>
          <leafValues>
            -7.4038410186767578e-01 4.5032006502151489e-01</leafValues></_>
        <_>
          <internalNodes>
            0 -1 69 1.9896822050213814e-04</internalNodes>
          <leafValues>
            2.9435920715332031e-01 -9.0291845798492432e-01</leafValues></_>
        <_>
          <internalNodes>
            0 -1 55 -3.7716855877079070e-04</internalNodes>
          <leafValues>
            -9.2161774635314941e-01 2.5463435053825378e-01</leafValues></_>
        <_>
          <internalNodes>
            0 -1 23 -1.2729959562420845e-03</internalNodes>
          <leafValues>
            2.8036877512931824e-01 -8.1467586755752563e-01</leafValues></_>
        <_>
          <internalNodes>
            0 -1 122 1.3692920096218586e-02</internalNodes>
          <leafValues>
            -5.1312774419784546e-01 5.3081691265106201e-01</leafValues></_>
        <_>
          <internalNodes>
            0 -1 7 -8.3463750779628754e-03</internalNodes>
          <leafValues>
            3.6733600497245789e-01 -7.3480796813964844e-01</leafValues></_>
        <_>
          <internalNodes>
            0 -1 131 -2.6083555072546005e-02</internalNodes>
          <leafValues>
            4.0583398938179016e-01 -5.9316796064376831e-01</leafValues></_>
        <_>
          <internalNodes>
            0 -1 70 -1.2744810373988003e-04</internalNodes>
          <leafValues>
            -9.0079796314239502e-01 2.7652093768119812e-01</leafValues></_></weakClassifiers></_>
    <!-- stage 10 -->
    <_>
      <maxWeakCount>9</maxWeakCount>
      <stageThreshold>-2.3560504913330078e+00</stageThreshold>
      <weakClassifiers>
        <_>
          <internalNodes>
            0 -1 40 3.4732851199805737e-03</internalNodes>
          <leafValues>
            -4.6843335032463074e-01 7.7796977758407593e-01</leafValues></_>
        <_>
          <internalNodes>
            0 -1 58 6.9005221128463745e-02</internalNodes>
          <leafValues>
            -4.4303363561630249e-01 6.7894959449768066e-01</leafValues></_>
        <_>
          <internalNodes>
            0 -1 119 1.1579285562038422e-01</internalNodes>
          <leafValues>
            -7.7172601222991943e-01 4.6488499641418457e-01</leafValues></_>
        <_>
          <internalNodes>
            0 -1 51 5.8524444699287415e-02</internalNodes>
          <leafValues>
            -3.9730727672576904e-01 8.2304108142852783e-01</leafValues></_>
        <_>
          <internalNodes>
            0 -1 65 -9.5408558845520020e-02</internalNodes>
          <leafValues>
            9.0766155719757080e-01 -3.6083850264549255e-01</leafValues></_>
        <_>
          <internalNodes>
            0 -1 0 1.3910826965002343e-05</internalNodes>
          <leafValues>
            4.7760576009750366e-01 -8.0833870172500610e-01</leafValues></_>
        <_>
          <internalNodes>
            0 -1 44 7.6126620173454285e-02</internalNodes>
          <leafValues>
            -4.2313343286514282e-01 7.6978003978729248e-01</leafValues></_>
        <_>
          <internalNodes>
            0 -1 81 3.6067470908164978e-02</internalNodes>
          <leafValues>
            -3.3046314120292664e-01 8.1068259477615356e-01</leafValues></_>
        <_>
          <internalNodes>
            0 -1 66 -3.4647353459149599e-03</internalNodes>
          <leafValues>
            -8.9491581916809082e-01 3.6127898097038269e-01</leafValues></_></weakClassifiers></_>
    <!-- stage 11 -->
    <_>
      <maxWeakCount>7</maxWeakCount>
      <stageThreshold>-1.4973371028900146e+00</stageThreshold>
      <weakClassifiers>
        <_>
          <internalNodes>
            0 -1 29 2.5333093479275703e-02</internalNodes>
          <leafValues>
            -5.9766763448715210e-01 7.0650058984756470e-01</leafValues></_>
        <_>
          <internalNodes>
            0 -1 106 2.1982471644878387e-01</internalNodes>
          <leafValues>
            -5.9377002716064453e-01 5.6749439239501953e-01</leafValues></_>
        <_>
          <internalNodes>
            0 -1 33 -1.2697090860456228e-03</internalNodes>
          <leafValues>
            3.8552594184875488e-01 -8.3896106481552124e-01</leafValues></_>
        <_>
          <internalNodes>
            0 -1 71 2.5039000320248306e-05</internalNodes>
          <leafValues>
            3.1029370427131653e-01 -8.5730969905853271e-01</leafValues></_>
        <_>
          <internalNodes>
            0 -1 11 3.3236001618206501e-03</internalNodes>
          <leafValues>
            -4.8225924372673035e-01 6.2759196758270264e-01</leafValues></_>
        <_>
          <internalNodes>
            0 -1 92 -7.2087459266185760e-03</internalNodes>
          <leafValues>
            3.9027228951454163e-01 -7.2698557376861572e-01</leafValues></_>
        <_>
          <internalNodes>
            0 -1 70 9.3784081400372088e-05</internalNodes>
          <leafValues>
            2.6474198698997498e-01 -8.5198003053665161e-01</leafValues></_></weakClassifiers></_>
    <!-- stage 12 -->
    <_>
      <maxWeakCount>11</maxWeakCount>
      <stageThreshold>-1.8873641490936279e+00</stageThreshold>
      <weakClassifiers>
        <_>
          <internalNodes>
            0 -1 3 3.3910209313035011e-03</internalNodes>
          <leafValues>
            -8.4888887405395508e-01 6.0656857490539551e-01</leafValues></_>
        <_>
          <internalNodes>
            0 -1 14 8.0342665314674377e-03</internalNodes>
          <leafValues>
            -6.8848502635955811e-01 5.1751482486724854e-01</leafValues></_>
        <_>
          <internalNodes>
            0 -1 116 3.2881543040275574e-02</internalNodes>
          <leafValues>
            -6.7697203159332275e-01 5.0750356912612915e-01</leafValues></_>
        <_>
          <internalNodes>
            0 -1 87 1.7136279493570328e-02</internalNodes>
          <leafValues>
            -5.0885200500488281e-01 6.3878113031387329e-01</leafValues></_>
        <_>
          <internalNodes>
            0 -1 65 1.2052289396524429e-01</internalNodes>
          <leafValues>
            -3.1938084959983826e-01 8.1540316343307495e-01</leafValues></_>
        <_>
          <internalNodes>
            0 -1 50 9.1037750244140625e-02</internalNodes>
          <leafValues>
            -2.8966313600540161e-01 9.1131031513214111e-01</leafValues></_>
        <_>
          <internalNodes>
            0 -1 6 -1.5904692700132728e-03</internalNodes>
          <leafValues>
            4.1315695643424988e-01 -7.2031444311141968e-01</leafValues></_>
        <_>
          <internalNodes>
            0 -1 91 -6.1704739928245544e-02</internalNodes>
          <leafValues>
            3.3118611574172974e-01 -8.0607944726943970e-01</leafValues></_>
        <_>
          <internalNodes>
            0 -1 98 1.8791537513607182e-05</internalNodes>
          <leafValues>
            2.6798817515373230e-01 -9.1409403085708618e-01</leafValues></_>
        <_>
          <internalNodes>
            0 -1 112 -3.7660968955606222e-03</internalNodes>
          <leafValues>
            -9.4553148746490479e-01 2.0502622425556183e-01</leafValues></_>
        <_>
          <internalNodes>
            0 -1 4 1.4082014560699463e-02</internalNodes>
          <leafValues>
            2.2752039134502411e-01 -8.6148369312286377e-01</leafValues></_></weakClassifiers></_>
    <!-- stage 13 -->
    <_>
      <maxWeakCount>11</maxWeakCount>
      <stageThreshold>-1.6111459732055664e+00</stageThreshold>
      <weakClassifiers>
        <_>
          <internalNodes>
            0 -1 21 2.0900324452668428e-03</internalNodes>
          <leafValues>
            -8.2621502876281738e-01 6.0328876972198486e-01</leafValues></_>
        <_>
          <internalNodes>
            0 -1 60 9.9022231996059418e-02</internalNodes>
          <leafValues>
            -5.3040522336959839e-01 6.1158961057662964e-01</leafValues></_>
        <_>
          <internalNodes>
            0 -1 117 1.1057701706886292e-01</internalNodes>
          <leafValues>
            -7.6517939567565918e-01 4.6930778026580811e-01</leafValues></_>
        <_>
          <internalNodes>
            0 -1 85 4.0181428194046021e-02</internalNodes>
          <leafValues>
            -4.0583002567291260e-01 7.5307977199554443e-01</leafValues></_>
        <_>
          <internalNodes>
            0 -1 19 2.1397335454821587e-02</internalNodes>
          <leafValues>
            -4.1190931200981140e-01 6.2535881996154785e-01</leafValues></_>
        <_>
          <internalNodes>
            0 -1 62 8.4169656038284302e-02</internalNodes>
          <leafValues>
            -3.3560255169868469e-01 8.0645006895065308e-01</leafValues></_>
        <_>
          <internalNodes>
            0 -1 68 -6.6735708969645202e-05</internalNodes>
          <leafValues>
            -9.3377208709716797e-01 3.1717613339424133e-01</leafValues></_>
        <_>
          <internalNodes>
            0 -1 68 3.5842764191329479e-05</internalNodes>
          <leafValues>
            2.5901818275451660e-01 -8.4340709447860718e-01</leafValues></_>
        <_>
          <internalNodes>
            0 -1 107 3.3582109608687460e-05</internalNodes>
          <leafValues>
            -8.2347643375396729e-01 2.4688838422298431e-01</leafValues></_>
        <_>
          <internalNodes>
            0 -1 2 -1.8359597306698561e-03</internalNodes>
          <leafValues>
            -9.2038935422897339e-01 2.1307156980037689e-01</leafValues></_>
        <_>
          <internalNodes>
            0 -1 130 -3.8132775574922562e-02</internalNodes>
          <leafValues>
            4.9577942490577698e-01 -4.9135309457778931e-01</leafValues></_></weakClassifiers></_>
    <!-- stage 14 -->
    <_>
      <maxWeakCount>9</maxWeakCount>
      <stageThreshold>-1.9230529069900513e+00</stageThreshold>
      <weakClassifiers>
        <_>
          <internalNodes>
            0 -1 111 -2.7426687302067876e-04</internalNodes>
          <leafValues>
            6.1460870504379272e-01 -7.8423237800598145e-01</leafValues></_>
        <_>
          <internalNodes>
            0 -1 115 1.7679098993539810e-02</internalNodes>
          <leafValues>
            -6.0267657041549683e-01 5.0146335363388062e-01</leafValues></_>
        <_>
          <internalNodes>
            0 -1 36 -7.9177226871252060e-04</internalNodes>
          <leafValues>
            3.4931209683418274e-01 -8.6934304237365723e-01</leafValues></_>
        <_>
          <internalNodes>
            0 -1 24 1.2144300341606140e-01</internalNodes>
          <leafValues>
            -6.1751723289489746e-01 4.5002037286758423e-01</leafValues></_>
        <_>
          <internalNodes>
            0 -1 128 7.3428498581051826e-05</internalNodes>
          <leafValues>
            2.4685518443584442e-01 -8.9860242605209351e-01</leafValues></_>
        <_>
          <internalNodes>
            0 -1 48 4.8402294516563416e-02</internalNodes>
          <leafValues>
            -3.4422335028648376e-01 7.8335058689117432e-01</leafValues></_>
        <_>
          <internalNodes>
            0 -1 5 3.8838462205603719e-04</internalNodes>
          <leafValues>
            3.0199980735778809e-01 -8.1648117303848267e-01</leafValues></_>
        <_>
          <internalNodes>
            0 -1 104 1.8911086954176426e-05</internalNodes>
          <leafValues>
            2.5430333614349365e-01 -8.4006243944168091e-01</leafValues></_>
        <_>
          <internalNodes>
            0 -1 72 -1.2990690767765045e-02</internalNodes>
          <leafValues>
            2.3839792609214783e-01 -8.3899366855621338e-01</leafValues></_></weakClassifiers></_>
    <!-- stage 15 -->
    <_>
      <maxWeakCount>10</maxWeakCount>
      <stageThreshold>-1.6688299179077148e+00</stageThreshold>
      <weakClassifiers>
        <_>
          <internalNodes>
            0 -1 105 1.4127336442470551e-02</internalNodes>
          <leafValues>
            -7.0795303583145142e-01 6.1568349599838257e-01</leafValues></_>
        <_>
          <internalNodes>
            0 -1 49 -5.9195518493652344e-02</internalNodes>
          <leafValues>
            5.5475485324859619e-01 -5.4253977537155151e-01</leafValues></_>
        <_>
          <internalNodes>
            0 -1 97 -2.4333292458322830e-05</internalNodes>
          <leafValues>
            -6.4258265495300293e-01 4.1762638092041016e-01</leafValues></_>
        <_>
          <internalNodes>
            0 -1 39 -9.6316100098192692e-04</internalNodes>
          <leafValues>
            3.4883132576942444e-01 -7.7922075986862183e-01</leafValues></_>
        <_>
          <internalNodes>
            0 -1 45 4.6059593558311462e-02</internalNodes>
          <leafValues>
            -5.3845727443695068e-01 4.3376049399375916e-01</leafValues></_>
        <_>
          <internalNodes>
            0 -1 8 1.0098001803271472e-04</internalNodes>
          <leafValues>
            4.3653711676597595e-01 -5.7466894388198853e-01</leafValues></_>
        <_>
          <internalNodes>
            0 -1 52 -9.5376342535018921e-02</internalNodes>
          <leafValues>
            8.5236817598342896e-01 -3.8548192381858826e-01</leafValues></_>
        <_>
          <internalNodes>
            0 -1 53 2.2304525598883629e-02</internalNodes>
          <leafValues>
            -3.2857540249824524e-01 7.8905224800109863e-01</leafValues></_>
        <_>
          <internalNodes>
            0 -1 95 -7.1398345753550529e-03</internalNodes>
          <leafValues>
            3.8628333806991577e-01 -6.7906922101974487e-01</leafValues></_>
        <_>
          <internalNodes>
            0 -1 12 3.6633056879509240e-05</internalNodes>
          <leafValues>
            -6.6710942983627319e-01 3.6344426870346069e-01</leafValues></_></weakClassifiers></_>
    <!-- stage 16 -->
    <_>
      <maxWeakCount>11</maxWeakCount>
      <stageThreshold>-1.5959285497665405e+00</stageThreshold>
      <weakClassifiers>
        <_>
          <internalNodes>
            0 -1 41 2.3513021878898144e-03</internalNodes>
          <leafValues>
            -3.9843750000000000e-01 7.3770493268966675e-01</leafValues></_>
        <_>
          <internalNodes>
            0 -1 134 3.1592801678925753e-04</internalNodes>
          <leafValues>
            3.8895300030708313e-01 -8.3118414878845215e-01</leafValues></_>
        <_>
          <internalNodes>
            0 -1 134 -2.3143884027376771e-04</internalNodes>
          <leafValues>
            -8.5989570617675781e-01 3.1632634997367859e-01</leafValues></_>
        <_>
          <internalNodes>
            0 -1 57 6.2859028577804565e-02</internalNodes>
          <leafValues>
            -5.4251670837402344e-01 4.5895668864250183e-01</leafValues></_>
        <_>
          <internalNodes>
            0 -1 102 -7.1680024266242981e-02</internalNodes>
          <leafValues>
            5.4934483766555786e-01 -4.9700477719306946e-01</leafValues></_>
        <_>
          <internalNodes>
            0 -1 10 -1.9257212989032269e-03</internalNodes>
          <leafValues>
            2.8055956959724426e-01 -8.7403851747512817e-01</leafValues></_>
        <_>
          <internalNodes>
            0 -1 1 4.7173901111818850e-04</internalNodes>
          <leafValues>
            2.2480159997940063e-01 -8.5775744915008545e-01</leafValues></_>
        <_>
          <internalNodes>
            0 -1 77 -6.4266216941177845e-03</internalNodes>
          <leafValues>
            -8.5362410545349121e-01 2.0122824609279633e-01</leafValues></_>
        <_>
          <internalNodes>
            0 -1 43 -3.3243570214835927e-05</internalNodes>
          <leafValues>
            2.4345532059669495e-01 -7.7634119987487793e-01</leafValues></_>
        <_>
          <internalNodes>
            0 -1 94 -1.4088066294789314e-02</internalNodes>
          <leafValues>
            2.5964820384979248e-01 -7.3548585176467896e-01</leafValues></_>
        <_>
          <internalNodes>
            0 -1 32 -1.3753363862633705e-02</internalNodes>
          <leafValues>
            -9.0017926692962646e-01 2.0320123434066772e-01</leafValues></_></weakClassifiers></_>
    <!-- stage 17 -->
    <_>
      <maxWeakCount>13</maxWeakCount>
      <stageThreshold>-1.4260087013244629e+00</stageThreshold>
      <weakClassifiers>
        <_>
          <internalNodes>
            0 -1 37 3.1129899434745312e-04</internalNodes>
          <leafValues>
            -7.1285891532897949e-01 6.3317841291427612e-01</leafValues></_>
        <_>
          <internalNodes>
            0 -1 42 1.5054176401463337e-05</internalNodes>
          <leafValues>
            4.7790774703025818e-01 -6.3068109750747681e-01</leafValues></_>
        <_>
          <internalNodes>
            0 -1 93 2.0063653588294983e-02</internalNodes>
          <leafValues>
            -3.8528645038604736e-01 6.8341487646102905e-01</leafValues></_>
        <_>
          <internalNodes>
            0 -1 76 2.7129161171615124e-03</internalNodes>
          <leafValues>
            2.7162405848503113e-01 -8.1166976690292358e-01</leafValues></_>
        <_>
          <internalNodes>
            0 -1 109 6.6647529602050781e-02</internalNodes>
          <leafValues>
            -6.4119899272918701e-01 2.8379541635513306e-01</leafValues></_>
        <_>
          <internalNodes>
            0 -1 99 7.2511553764343262e-02</internalNodes>
          <leafValues>
            -6.3526409864425659e-01 3.6152046918869019e-01</leafValues></_>
        <_>
          <internalNodes>
            0 -1 7 -1.1303070932626724e-02</internalNodes>
          <leafValues>
            2.7948200702667236e-01 -6.6894346475601196e-01</leafValues></_>
        <_>
          <internalNodes>
            0 -1 61 -6.0943417251110077e-02</internalNodes>
          <leafValues>
            7.6097643375396729e-01 -2.8779187798500061e-01</leafValues></_>
        <_>
          <internalNodes>
            0 -1 78 -5.7254666462540627e-03</internalNodes>
          <leafValues>
            2.6835924386978149e-01 -8.7823724746704102e-01</leafValues></_>
        <_>
          <internalNodes>
            0 -1 74 3.9135493338108063e-02</internalNodes>
          <leafValues>
            -2.9413473606109619e-01 9.1801571846008301e-01</leafValues></_>
        <_>
          <internalNodes>
            0 -1 80 1.8145158537663519e-04</internalNodes>
          <leafValues>
            3.1553003191947937e-01 -7.7233517169952393e-01</leafValues></_>
        <_>
          <internalNodes>
            0 -1 64 6.5824717283248901e-02</internalNodes>
          <leafValues>
            -2.5243028998374939e-01 8.7566310167312622e-01</leafValues></_>
        <_>
          <internalNodes>
            0 -1 54 -1.1128700524568558e-01</internalNodes>
          <leafValues>
            8.1010603904724121e-01 -3.3111992478370667e-01</leafValues></_></weakClassifiers></_></stages>
  <features>
    <_>
      <rects>
        <_>
          0 0 1 8 -1.</_>
        <_>
          0 2 1 4 2.</_></rects>
      <tilted>0</tilted></_>
    <_>
      <rects>
        <_>
          0 0 1 6 -1.</_>
        <_>
          0 3 1 3 2.</_></rects>
      <tilted>0</tilted></_>
    <_>
      <rects>
        <_>
          0 0 1 10 -1.</_>
        <_>
          0 5 1 5 2.</_></rects>
      <tilted>0</tilted></_>
    <_>
      <rects>
        <_>
          0 0 5 4 -1.</_>
        <_>
          0 2 5 2 2.</_></rects>
      <tilted>0</tilted></_>
    <_>
      <rects>
        <_>
          0 0 5 10 -1.</_>
        <_>
          0 5 5 5 2.</_></rects>
      <tilted>0</tilted></_>
    <_>
      <rects>
        <_>
          0 1 1 6 -1.</_>
        <_>
          0 4 1 3 2.</_></rects>
      <tilted>0</tilted></_>
    <_>
      <rects>
        <_>
          0 1 6 8 -1.</_>
        <_>
          0 1 3 4 2.</_>
        <_>
          3 5 3 4 2.</_></rects>
      <tilted>0</tilted></_>
    <_>
      <rects>
        <_>
          0 3 7 4 -1.</_>
        <_>
          0 4 7 2 2.</_></rects>
      <tilted>0</tilted></_>
    <_>
      <rects>
        <_>
          0 4 1 6 -1.</_>
        <_>
          0 6 1 2 3.</_></rects>
      <tilted>0</tilted></_>
    <_>
      <rects>
        <_>
          0 4 5 6 -1.</_>
        <_>
          0 6 5 2 3.</_></rects>
      <tilted>0</tilted></_>
    <_>
      <rects>
        <_>
          0 6 4 4 -1.</_>
        <_>
          0 8 4 2 2.</_></rects>
      <tilted>0</tilted></_>
    <_>
      <rects>
        <_>
          0 7 4 1 -1.</_>
        <_>
          2 7 2 1 2.</_></rects>
      <tilted>0</tilted></_>
    <_>
      <rects>
        <_>
          1 0 3 6 -1.</_>
        <_>
          1 3 3 3 2.</_></rects>
      <tilted>0</tilted></_>
    <_>
      <rects>
        <_>
          1 0 6 6 -1.</_>
        <_>
          1 2 6 2 3.</_></rects>
      <tilted>0</tilted></_>
    <_>
      <rects>
        <_>
          1 1 3 7 -1.</_>
        <_>
          2 1 1 7 3.</_></rects>
      <tilted>0</tilted></_>
    <_>
      <rects>
        <_>
          1 1 4 8 -1.</_>
        <_>
          2 1 2 8 2.</_></rects>
      <tilted>0</tilted></_>
    <_>
      <rects>
        <_>
          1 1 22 3 -1.</_>
        <_>
          1 2 22 1 3.</_></rects>
      <tilted>0</tilted></_>
    <_>
      <rects>
        <_>
          1 2 4 5 -1.</_>
        <_>
          2 2 2 5 2.</_></rects>
      <tilted>0</tilted></_>
    <_>
      <rects>
        <_>
          1 2 3 7 -1.</_>
        <_>
          2 2 1 7 3.</_></rects>
      <tilted>0</tilted></_>
    <_>
      <rects>
        <_>
          1 3 4 5 -1.</_>
        <_>
          2 3 2 5 2.</_></rects>
      <tilted>0</tilted></_>
    <_>
      <rects>
        <_>
          1 3 6 4 -1.</_>
        <_>
          1 4 6 2 2.</_></rects>
      <tilted>0</tilted></_>
    <_>
      <rects>
        <_>
          1 4 4 4 -1.</_>
        <_>
          1 6 4 2 2.</_></rects>
      <tilted>0</tilted></_>
    <_>
      <rects>
        <_>
          1 4 6 6 -1.</_>
        <_>
          1 6 6 2 3.</_></rects>
      <tilted>0</tilted></_>
    <_>
      <rects>
        <_>
          1 7 8 3 -1.</_>
        <_>
          3 7 4 3 2.</_></rects>
      <tilted>0</tilted></_>
    <_>
      <rects>
        <_>
          2 0 26 8 -1.</_>
        <_>
          2 2 26 4 2.</_></rects>
      <tilted>0</tilted></_>
    <_>
      <rects>
        <_>
          2 2 6 7 -1.</_>
        <_>
          4 2 2 7 3.</_></rects>
      <tilted>0</tilted></_>
    <_>
      <rects>
        <_>
          2 4 4 2 -1.</_>
        <_>
          3 5 2 2 2.</_></rects>
      <tilted>1</tilted></_>
    <_>
      <rects>
        <_>
          2 4 4 6 -1.</_>
        <_>
          2 6 4 2 3.</_></rects>
      <tilted>0</tilted></_>
    <_>
      <rects>
        <_>
          2 6 5 4 -1.</_>
        <_>
          2 8 5 2 2.</_></rects>
      <tilted>0</tilted></_>
    <_>
      <rects>
        <_>
          3 0 6 9 -1.</_>
        <_>
          6 0 3 9 2.</_></rects>
      <tilted>0</tilted></_>
    <_>
      <rects>
        <_>
          3 1 4 4 -1.</_>
        <_>
          4 1 2 4 2.</_></rects>
      <tilted>0</tilted></_>
    <_>
      <rects>
        <_>
          3 1 4 6 -1.</_>
        <_>
          4 1 2 6 2.</_></rects>
      <tilted>0</tilted></_>
    <_>
      <rects>
        <_>
          3 1 6 3 -1.</_>
        <_>
          3 1 3 3 2.</_></rects>
      <tilted>1</tilted></_>
    <_>
      <rects>
        <_>
          3 4 3 6 -1.</_>
        <_>
          3 7 3 3 2.</_></rects>
      <tilted>0</tilted></_>
    <_>
      <rects>
        <_>
          3 4 6 5 -1.</_>
        <_>
          6 4 3 5 2.</_></rects>
      <tilted>0</tilted></_>
    <_>
      <rects>
        <_>
          3 7 3 1 -1.</_>
        <_>
          4 7 1 1 3.</_></rects>
      <tilted>0</tilted></_>
    <_>
      <rects>
        <_>
          3 7 3 3 -1.</_>
        <_>
          4 8 1 1 9.</_></rects>
      <tilted>0</tilted></_>
    <_>
      <rects>
        <_>
          4 1 4 2 -1.</_>
        <_>
          6 1 2 2 2.</_></rects>
      <tilted>0</tilted></_>
    <_>
      <rects>
        <_>
          4 1 12 3 -1.</_>
        <_>
          4 2 12 1 3.</_></rects>
      <tilted>0</tilted></_>
    <_>
      <rects>
        <_>
          4 3 2 4 -1.</_>
        <_>
          4 4 2 2 2.</_></rects>
      <tilted>0</tilted></_>
    <_>
      <rects>
        <_>
          4 6 4 2 -1.</_>
        <_>
          5 6 2 2 2.</_></rects>
      <tilted>0</tilted></_>
    <_>
      <rects>
        <_>
          4 7 4 1 -1.</_>
        <_>
          5 7 2 1 2.</_></rects>
      <tilted>0</tilted></_>
    <_>
      <rects>
        <_>
          4 9 28 1 -1.</_>
        <_>
          11 9 14 1 2.</_></rects>
      <tilted>0</tilted></_>
    <_>
      <rects>
        <_>
          5 0 6 1 -1.</_>
        <_>
          5 0 3 1 2.</_></rects>
      <tilted>1</tilted></_>
    <_>
      <rects>
        <_>
          5 3 35 3 -1.</_>
        <_>
          5 4 35 1 3.</_></rects>
      <tilted>0</tilted></_>
    <_>
      <rects>
        <_>
          5 6 32 4 -1.</_>
        <_>
          5 7 32 2 2.</_></rects>
      <tilted>0</tilted></_>
    <_>
      <rects>
        <_>
          6 0 26 7 -1.</_>
        <_>
          19 0 13 7 2.</_></rects>
      <tilted>0</tilted></_>
    <_>
      <rects>
        <_>
          6 0 32 8 -1.</_>
        <_>
          6 2 32 4 2.</_></rects>
      <tilted>0</tilted></_>
    <_>
      <rects>
        <_>
          6 3 24 2 -1.</_>
        <_>
          6 4 24 1 2.</_></rects>
      <tilted>0</tilted></_>
    <_>
      <rects>
        <_>
          6 4 12 6 -1.</_>
        <_>
          6 7 12 3 2.</_></rects>
      <tilted>0</tilted></_>
    <_>
      <rects>
        <_>
          6 6 17 3 -1.</_>
        <_>
          6 7 17 1 3.</_></rects>
      <tilted>0</tilted></_>
    <_>
      <rects>
        <_>
          6 7 13 3 -1.</_>
        <_>
          6 8 13 1 3.</_></rects>
      <tilted>0</tilted></_>
    <_>
      <rects>
        <_>
          6 7 19 3 -1.</_>
        <_>
          6 8 19 1 3.</_></rects>
      <tilted>0</tilted></_>
    <_>
      <rects>
        <_>
          6 7 20 2 -1.</_>
        <_>
          6 8 20 1 2.</_></rects>
      <tilted>0</tilted></_>
    <_>
      <rects>
        <_>
          6 7 22 3 -1.</_>
        <_>
          6 8 22 1 3.</_></rects>
      <tilted>0</tilted></_>
    <_>
      <rects>
        <_>
          6 9 24 1 -1.</_>
        <_>
          14 9 8 1 3.</_></rects>
      <tilted>0</tilted></_>
    <_>
      <rects>
        <_>
          7 1 8 3 -1.</_>
        <_>
          7 2 8 1 3.</_></rects>
      <tilted>0</tilted></_>
    <_>
      <rects>
        <_>
          7 1 11 3 -1.</_>
        <_>
          7 2 11 1 3.</_></rects>
      <tilted>0</tilted></_>
    <_>
      <rects>
        <_>
          7 1 12 3 -1.</_>
        <_>
          7 2 12 1 3.</_></rects>
      <tilted>0</tilted></_>
    <_>
      <rects>
        <_>
          7 1 16 3 -1.</_>
        <_>
          7 2 16 1 3.</_></rects>
      <tilted>0</tilted></_>
    <_>
      <rects>
        <_>
          7 1 18 3 -1.</_>
        <_>
          7 2 18 1 3.</_></rects>
      <tilted>0</tilted></_>
    <_>
      <rects>
        <_>
          7 2 10 3 -1.</_>
        <_>
          7 3 10 1 3.</_></rects>
      <tilted>0</tilted></_>
    <_>
      <rects>
        <_>
          7 3 19 3 -1.</_>
        <_>
          7 4 19 1 3.</_></rects>
      <tilted>0</tilted></_>
    <_>
      <rects>
        <_>
          7 3 28 3 -1.</_>
        <_>
          7 4 28 1 3.</_></rects>
      <tilted>0</tilted></_>
    <_>
      <rects>
        <_>
          7 7 20 2 -1.</_>
        <_>
          7 8 20 1 2.</_></rects>
      <tilted>0</tilted></_>
    <_>
      <rects>
        <_>
          7 7 20 3 -1.</_>
        <_>
          7 8 20 1 3.</_></rects>
      <tilted>0</tilted></_>
    <_>
      <rects>
        <_>
          8 0 18 1 -1.</_>
        <_>
          17 0 9 1 2.</_></rects>
      <tilted>0</tilted></_>
    <_>
      <rects>
        <_>
          8 1 15 3 -1.</_>
        <_>
          8 2 15 1 3.</_></rects>
      <tilted>0</tilted></_>
    <_>
      <rects>
        <_>
          9 9 6 1 -1.</_>
        <_>
          11 9 2 1 3.</_></rects>
      <tilted>0</tilted></_>
    <_>
      <rects>
        <_>
          9 9 10 1 -1.</_>
        <_>
          14 9 5 1 2.</_></rects>
      <tilted>0</tilted></_>
    <_>
      <rects>
        <_>
          10 0 6 1 -1.</_>
        <_>
          12 0 2 1 3.</_></rects>
      <tilted>0</tilted></_>
    <_>
      <rects>
        <_>
          10 0 14 1 -1.</_>
        <_>
          17 0 7 1 2.</_></rects>
      <tilted>0</tilted></_>
    <_>
      <rects>
        <_>
          11 0 20 6 -1.</_>
        <_>
          21 0 10 6 2.</_></rects>
      <tilted>0</tilted></_>
    <_>
      <rects>
        <_>
          11 1 2 1 -1.</_>
        <_>
          12 1 1 1 2.</_></rects>
      <tilted>0</tilted></_>
    <_>
      <rects>
        <_>
          11 2 14 3 -1.</_>
        <_>
          11 3 14 1 3.</_></rects>
      <tilted>0</tilted></_>
    <_>
      <rects>
        <_>
          11 6 27 4 -1.</_>
        <_>
          11 7 27 2 2.</_></rects>
      <tilted>0</tilted></_>
    <_>
      <rects>
        <_>
          11 9 28 1 -1.</_>
        <_>
          25 9 14 1 2.</_></rects>
      <tilted>0</tilted></_>
    <_>
      <rects>
        <_>
          13 0 27 1 -1.</_>
        <_>
          22 0 9 1 3.</_></rects>
      <tilted>0</tilted></_>
    <_>
      <rects>
        <_>
          13 0 18 6 -1.</_>
        <_>
          22 0 9 6 2.</_></rects>
      <tilted>0</tilted></_>
    <_>
      <rects>
        <_>
          13 1 7 3 -1.</_>
        <_>
          13 2 7 1 3.</_></rects>
      <tilted>0</tilted></_>
    <_>
      <rects>
        <_>
          13 4 4 2 -1.</_>
        <_>
          14 4 2 2 2.</_></rects>
      <tilted>0</tilted></_>
    <_>
      <rects>
        <_>
          13 4 12 3 -1.</_>
        <_>
          13 5 12 1 3.</_></rects>
      <tilted>0</tilted></_>
    <_>
      <rects>
        <_>
          14 5 26 2 -1.</_>
        <_>
          14 5 13 1 2.</_>
        <_>
          27 6 13 1 2.</_></rects>
      <tilted>0</tilted></_>
    <_>
      <rects>
        <_>
          14 9 8 1 -1.</_>
        <_>
          18 9 4 1 2.</_></rects>
      <tilted>0</tilted></_>
    <_>
      <rects>
        <_>
          15 0 25 8 -1.</_>
        <_>
          15 2 25 4 2.</_></rects>
      <tilted>0</tilted></_>
    <_>
      <rects>
        <_>
          15 5 22 2 -1.</_>
        <_>
          15 5 11 1 2.</_>
        <_>
          26 6 11 1 2.</_></rects>
      <tilted>0</tilted></_>
    <_>
      <rects>
        <_>
          16 7 23 3 -1.</_>
        <_>
          16 8 23 1 3.</_></rects>
      <tilted>0</tilted></_>
    <_>
      <rects>
        <_>
          18 2 18 2 -1.</_>
        <_>
          18 2 9 1 2.</_>
        <_>
          27 3 9 1 2.</_></rects>
      <tilted>0</tilted></_>
    <_>
      <rects>
        <_>
          20 4 6 3 -1.</_>
        <_>
          20 5 6 1 3.</_></rects>
      <tilted>0</tilted></_>
    <_>
      <rects>
        <_>
          23 0 12 9 -1.</_>
        <_>
          26 0 6 9 2.</_></rects>
      <tilted>0</tilted></_>
    <_>
      <rects>
        <_>
          23 1 12 5 -1.</_>
        <_>
          26 1 6 5 2.</_></rects>
      <tilted>0</tilted></_>
    <_>
      <rects>
        <_>
          23 2 12 7 -1.</_>
        <_>
          26 2 6 7 2.</_></rects>
      <tilted>0</tilted></_>
    <_>
      <rects>
        <_>
          23 4 8 2 -1.</_>
        <_>
          27 4 4 2 2.</_></rects>
      <tilted>0</tilted></_>
    <_>
      <rects>
        <_>
          23 5 14 2 -1.</_>
        <_>
          23 5 7 1 2.</_>
        <_>
          30 6 7 1 2.</_></rects>
      <tilted>0</tilted></_>
    <_>
      <rects>
        <_>
          23 7 12 2 -1.</_>
        <_>
          26 7 6 2 2.</_></rects>
      <tilted>0</tilted></_>
    <_>
      <rects>
        <_>
          24 0 12 3 -1.</_>
        <_>
          27 0 6 3 2.</_></rects>
      <tilted>0</tilted></_>
    <_>
      <rects>
        <_>
          24 0 16 6 -1.</_>
        <_>
          24 2 16 2 3.</_></rects>
      <tilted>0</tilted></_>
    <_>
      <rects>
        <_>
          25 0 10 1 -1.</_>
        <_>
          30 0 5 1 2.</_></rects>
      <tilted>0</tilted></_>
    <_>
      <rects>
        <_>
          25 0 15 1 -1.</_>
        <_>
          30 0 5 1 3.</_></rects>
      <tilted>0</tilted></_>
    <_>
      <rects>
        <_>
          25 0 14 4 -1.</_>
        <_>
          25 2 14 2 2.</_></rects>
      <tilted>0</tilted></_>
    <_>
      <rects>
        <_>
          25 2 8 6 -1.</_>
        <_>
          27 2 4 6 2.</_></rects>
      <tilted>0</tilted></_>
    <_>
      <rects>
        <_>
          26 0 12 4 -1.</_>
        <_>
          26 2 12 2 2.</_></rects>
      <tilted>0</tilted></_>
    <_>
      <rects>
        <_>
          26 2 6 7 -1.</_>
        <_>
          28 2 2 7 3.</_></rects>
      <tilted>0</tilted></_>
    <_>
      <rects>
        <_>
          26 6 12 4 -1.</_>
        <_>
          26 8 12 2 2.</_></rects>
      <tilted>0</tilted></_>
    <_>
      <rects>
        <_>
          27 0 12 1 -1.</_>
        <_>
          31 0 4 1 3.</_></rects>
      <tilted>0</tilted></_>
    <_>
      <rects>
        <_>
          27 0 8 4 -1.</_>
        <_>
          27 0 4 2 2.</_>
        <_>
          31 2 4 2 2.</_></rects>
      <tilted>0</tilted></_>
    <_>
      <rects>
        <_>
          27 0 12 6 -1.</_>
        <_>
          31 2 4 2 9.</_></rects>
      <tilted>0</tilted></_>
    <_>
      <rects>
        <_>
          27 1 4 4 -1.</_>
        <_>
          27 2 4 2 2.</_></rects>
      <tilted>0</tilted></_>
    <_>
      <rects>
        <_>
          27 2 8 3 -1.</_>
        <_>
          31 2 4 3 2.</_></rects>
      <tilted>0</tilted></_>
    <_>
      <rects>
        <_>
          27 3 8 6 -1.</_>
        <_>
          31 3 4 6 2.</_></rects>
      <tilted>0</tilted></_>
    <_>
      <rects>
        <_>
          27 5 11 4 -1.</_>
        <_>
          27 6 11 2 2.</_></rects>
      <tilted>0</tilted></_>
    <_>
      <rects>
        <_>
          27 6 4 4 -1.</_>
        <_>
          27 8 4 2 2.</_></rects>
      <tilted>0</tilted></_>
    <_>
      <rects>
        <_>
          28 0 2 6 -1.</_>
        <_>
          28 3 2 3 2.</_></rects>
      <tilted>0</tilted></_>
    <_>
      <rects>
        <_>
          28 0 4 5 -1.</_>
        <_>
          30 0 2 5 2.</_></rects>
      <tilted>0</tilted></_>
    <_>
      <rects>
        <_>
          28 1 12 8 -1.</_>
        <_>
          32 1 4 8 3.</_></rects>
      <tilted>0</tilted></_>
    <_>
      <rects>
        <_>
          28 2 4 3 -1.</_>
        <_>
          30 2 2 3 2.</_></rects>
      <tilted>0</tilted></_>
    <_>
      <rects>
        <_>
          28 2 4 7 -1.</_>
        <_>
          30 2 2 7 2.</_></rects>
      <tilted>0</tilted></_>
    <_>
      <rects>
        <_>
          28 2 12 6 -1.</_>
        <_>
          32 2 4 6 3.</_></rects>
      <tilted>0</tilted></_>
    <_>
      <rects>
        <_>
          28 2 12 7 -1.</_>
        <_>
          32 2 4 7 3.</_></rects>
      <tilted>0</tilted></_>
    <_>
      <rects>
        <_>
          28 2 12 8 -1.</_>
        <_>
          32 2 4 8 3.</_></rects>
      <tilted>0</tilted></_>
    <_>
      <rects>
        <_>
          28 3 4 5 -1.</_>
        <_>
          30 3 2 5 2.</_></rects>
      <tilted>0</tilted></_>
    <_>
      <rects>
        <_>
          28 4 12 6 -1.</_>
        <_>
          32 6 4 2 9.</_></rects>
      <tilted>0</tilted></_>
    <_>
      <rects>
        <_>
          28 6 4 2 -1.</_>
        <_>
          30 6 2 2 2.</_></rects>
      <tilted>0</tilted></_>
    <_>
      <rects>
        <_>
          29 5 9 4 -1.</_>
        <_>
          29 6 9 2 2.</_></rects>
      <tilted>0</tilted></_>
    <_>
      <rects>
        <_>
          30 0 8 4 -1.</_>
        <_>
          30 2 8 2 2.</_></rects>
      <tilted>0</tilted></_>
    <_>
      <rects>
        <_>
          30 3 8 4 -1.</_>
        <_>
          30 4 8 2 2.</_></rects>
      <tilted>0</tilted></_>
    <_>
      <rects>
        <_>
          31 0 4 4 -1.</_>
        <_>
          31 2 4 2 2.</_></rects>
      <tilted>0</tilted></_>
    <_>
      <rects>
        <_>
          31 0 6 4 -1.</_>
        <_>
          31 2 6 2 2.</_></rects>
      <tilted>0</tilted></_>
    <_>
      <rects>
        <_>
          32 0 8 1 -1.</_>
        <_>
          36 0 4 1 2.</_></rects>
      <tilted>0</tilted></_>
    <_>
      <rects>
        <_>
          34 2 6 7 -1.</_>
        <_>
          37 2 3 7 2.</_></rects>
      <tilted>0</tilted></_>
    <_>
      <rects>
        <_>
          36 0 4 9 -1.</_>
        <_>
          38 0 2 9 2.</_></rects>
      <tilted>0</tilted></_>
    <_>
      <rects>
        <_>
          36 1 4 8 -1.</_>
        <_>
          38 1 2 8 2.</_></rects>
      <tilted>0</tilted></_>
    <_>
      <rects>
        <_>
          36 2 4 7 -1.</_>
        <_>
          38 2 2 7 2.</_></rects>
      <tilted>0</tilted></_>
    <_>
      <rects>
        <_>
          39 0 1 6 -1.</_>
        <_>
          39 2 1 2 3.</_></rects>
      <tilted>0</tilted></_>
    <_>
      <rects>
        <_>
          39 0 1 9 -1.</_>
        <_>
          39 3 1 3 3.</_></rects>
      <tilted>0</tilted></_></features></cascade>
</opencv_storage>
