<?xml version="1.0"?>
<opencv_storage>
<stage17>
  <maxWeakCount>13</maxWeakCount>
  <stageThreshold>-1.4260087013244629e+00</stageThreshold>
  <weakClassifiers>
    <_>
      <internalNodes>
        0 -1 20625 3.1129899434745312e-04</internalNodes>
      <leafValues>
        -7.1285891532897949e-01 6.3317841291427612e-01</leafValues></_>
    <_>
      <internalNodes>
        0 -1 24393 1.5054176401463337e-05</internalNodes>
      <leafValues>
        4.7790774703025818e-01 -6.3068109750747681e-01</leafValues></_>
    <_>
      <internalNodes>
        0 -1 90515 2.0063653588294983e-02</internalNodes>
      <leafValues>
        -3.8528645038604736e-01 6.8341487646102905e-01</leafValues></_>
    <_>
      <internalNodes>
        0 -1 54170 2.7129161171615124e-03</internalNodes>
      <leafValues>
        2.7162405848503113e-01 -8.1166976690292358e-01</leafValues></_>
    <_>
      <internalNodes>
        0 -1 98396 6.6647529602050781e-02</internalNodes>
      <leafValues>
        -6.4119899272918701e-01 2.8379541635513306e-01</leafValues></_>
    <_>
      <internalNodes>
        0 -1 93597 7.2511553764343262e-02</internalNodes>
      <leafValues>
        -6.3526409864425659e-01 3.6152046918869019e-01</leafValues></_>
    <_>
      <internalNodes>
        0 -1 2802 -1.1303070932626724e-02</internalNodes>
      <leafValues>
        2.7948200702667236e-01 -6.6894346475601196e-01</leafValues></_>
    <_>
      <internalNodes>
        0 -1 35504 -6.0943417251110077e-02</internalNodes>
      <leafValues>
        7.6097643375396729e-01 -2.8779187798500061e-01</leafValues></_>
    <_>
      <internalNodes>
        0 -1 58444 -5.7254666462540627e-03</internalNodes>
      <leafValues>
        2.6835924386978149e-01 -8.7823724746704102e-01</leafValues></_>
    <_>
      <internalNodes>
        0 -1 52217 3.9135493338108063e-02</internalNodes>
      <leafValues>
        -2.9413473606109619e-01 9.1801571846008301e-01</leafValues></_>
    <_>
      <internalNodes>
        0 -1 60353 1.8145158537663519e-04</internalNodes>
      <leafValues>
        3.1553003191947937e-01 -7.7233517169952393e-01</leafValues></_>
    <_>
      <internalNodes>
        0 -1 37701 6.5824717283248901e-02</internalNodes>
      <leafValues>
        -2.5243028998374939e-01 8.7566310167312622e-01</leafValues></_>
    <_>
      <internalNodes>
        0 -1 33301 -1.1128700524568558e-01</internalNodes>
      <leafValues>
        8.1010603904724121e-01 -3.3111992478370667e-01</leafValues></_></weakClassifiers></stage17>
</opencv_storage>
